{"type":"NeuralNetwork","sizes":[14,3,4],"layers":[{"weights":[],"biases":[]},{"weights":[[0.8653090000152588,2.761852979660034,-0.012496906332671642,2.5824460983276367,-2.705631732940674,2.5644383430480957,0.5257231593132019,-0.2469395399093628,-2.4429543018341064,-0.11156190186738968,0.06861618161201477,-0.0658765435218811,-0.15415449440479279,-0.16486509144306183],[-0.7925243973731995,-2.128917932510376,-0.14344187080860138,-1.0433555841445923,-2.5722947120666504,-0.7555243968963623,0.15430139005184174,-0.5496281981468201,3.910065174102783,-0.08186180144548416,-0.17768393456935883,-0.14114311337471008,0.1870793253183365,0.07940942794084549],[0.7526136636734009,2.4421749114990234,-0.16391055285930634,0.9971346259117126,3.44560170173645,0.8679891228675842,-2.907130718231201,-2.0416080951690674,2.010939359664917,0.029419487342238426,0.12665314972400665,-0.11322557926177979,-0.08318540453910828,0.15222914516925812]],"biases":[0.11775416135787964,-0.28339269757270813,-0.1184055283665657]},{"weights":[[1.1018418073654175,-0.0747128427028656,-6.604267120361328],[-4.553266525268555,-4.270181655883789,1.5905858278274536],[4.701199531555176,-4.38248872756958,1.9894005060195923],[-4.4273834228515625,5.465483665466309,0.5227793455123901]],"biases":[2.3504817485809326,0.47474634647369385,-3.8168845176696777,-2.6002166271209717]}],"inputLookup":null,"inputLookupLength":0,"outputLookup":{"greetings":0,"questiongreeting":1,"farwell":2,"test":3},"outputLookupLength":4,"options":{"inputSize":0,"outputSize":0,"binaryThresh":0.5,"hiddenLayers":[3]},"trainOpts":{"activation":"sigmoid","iterations":20000,"errorThresh":0.005,"log":true,"logPeriod":10,"leakyReluAlpha":0.01,"learningRate":0.3,"momentum":0.1,"callbackPeriod":10,"timeout":"Infinity","beta1":0.9,"beta2":0.999,"epsilon":1e-8}}