{"type":"NeuralNetwork","sizes":[55,3,5],"layers":[{"weights":[],"biases":[]},{"weights":[[-0.12053625285625458,-2.3809940814971924,-0.06902773678302765,0.010882372967898846,-0.19208918511867523,-4.830633640289307,0.046620968729257584,-0.07477355748414993,0.08480308204889297,-0.17677931487560272,-0.17660142481327057,0.17400722205638885,0.7805769443511963,2.465832233428955,-0.02163861133158207,2.3756909370422363,-0.156630277633667,2.2469522953033447,1.2565338611602783,-0.04110892862081528,-0.1844913810491562,0.16736018657684326,-0.06287132948637009,0.09651198238134384,0.14030219614505768,-0.16481240093708038,-0.11237960308790207,-0.016630489379167557,0.02317131869494915,-0.022307846695184708,0.1357945054769516,0.19487082958221436,0.18692021071910858,-0.17868360877037048,0.029939956963062286,-0.08108416199684143,0.016681544482707977,0.004331506323069334,-0.03463767096400261,-0.09733892977237701,0.05023105442523956,0.11738172173500061,-0.059411708265542984,-0.007191232871264219,-0.1976972073316574,0.13941767811775208,-0.12207970768213272,-2.960984945297241,0.14411219954490662,0.08477965742349625,0.05214041844010353,0.07811034470796585,-0.1409907191991806,0.008214238099753857,-0.17853333055973053],[-0.1587129831314087,-3.7700812816619873,0.1186671257019043,0.10725880414247513,0.07738389074802399,-1.8090311288833618,-0.08328058570623398,0.018462851643562317,0.015898671001195908,0.19266358017921448,0.04776930436491966,0.1214655265212059,-1.1408202648162842,-5.208967208862305,0.0964045375585556,-1.6982368230819702,-0.01889902912080288,-1.7463476657867432,1.0494701862335205,-0.11632248759269714,-0.085833840072155,0.19984543323516846,0.12908880412578583,0.06149165704846382,-0.12560290098190308,-0.1904687136411667,0.11881151050329208,0.07575295120477676,0.03653578460216522,0.09387009590864182,-0.15212997794151306,0.13983628153800964,-0.03628584370017052,-0.07434673607349396,0.04740513116121292,0.14563341438770294,0.10898449271917343,0.12184909731149673,0.19329333305358887,-0.19598107039928436,0.01713111251592636,-0.07327929139137268,0.0112253837287426,0.11303535103797913,0.11473381519317627,0.16552910208702087,0.17424477636814117,1.1447399854660034,0.048342399299144745,0.07750953733921051,0.10762586444616318,-0.004803083371371031,0.1681237369775772,-0.19563166797161102,-0.12910720705986023],[0.07865732163190842,2.2679073810577393,-0.0994449332356453,-0.19879664480686188,-0.1337314397096634,0.8559461236000061,-0.12807248532772064,0.10252244770526886,0.13436271250247955,0.08380630612373352,-0.09986886382102966,-0.04275185614824295,1.0016790628433228,4.410989761352539,0.01760171353816986,1.2269079685211182,-0.16882525384426117,1.463761806488037,-1.9615366458892822,-0.047715477645397186,0.029407205060124397,-0.04662258177995682,0.06350776553153992,0.1783151775598526,-0.017091695219278336,0.06870347261428833,0.020420614629983902,0.059775806963443756,0.10865368694067001,-0.03831319883465767,-0.07457485795021057,0.06020643934607506,0.0010094386525452137,-0.09603966027498245,-0.07598192244768143,-0.15244770050048828,0.1088639572262764,0.1697927564382553,0.09554403275251389,0.02110385149717331,-0.01074517797678709,-0.170423224568367,0.06213020160794258,0.14971157908439636,0.14631927013397217,-0.18891926109790802,-0.11569280922412872,4.196722507476807,0.04198681190609932,-0.10999864339828491,0.020109090954065323,0.1754234880208969,-0.181326225399971,0.15214668214321136,-0.15522757172584534]],"biases":[1.697962999343872,1.2721251249313354,-3.572542667388916]},{"weights":[[3.326547622680664,3.552051067352295,-11.106356620788574],[-11.049579620361328,-7.077404975891113,2.092536211013794],[8.648714065551758,-9.074877738952637,2.0979831218719482],[-3.2103052139282227,4.757814884185791,4.001222133636475],[-3.2179877758026123,4.845715045928955,4.0391435623168945]],"biases":[-1.0000941753387451,3.385211706161499,-5.230332374572754,-6.307491302490234,-6.332717418670654]}],"inputLookup":null,"inputLookupLength":0,"outputLookup":{"greetings":0,"questiongreeting":1,"farwell":2,"test":3,"te":4},"outputLookupLength":5,"options":{"inputSize":0,"outputSize":0,"binaryThresh":0.5,"hiddenLayers":[3]},"trainOpts":{"activation":"sigmoid","iterations":20000,"errorThresh":0.005,"log":true,"logPeriod":10,"leakyReluAlpha":0.01,"learningRate":0.3,"momentum":0.1,"callbackPeriod":10,"timeout":"Infinity","beta1":0.9,"beta2":0.999,"epsilon":1e-8}}