{"type":"NeuralNetwork","sizes":[11,3,4],"layers":[{"weights":[],"biases":[]},{"weights":[[0.10448012501001358,0.6754589676856995,-0.035328712314367294,-0.1484781801700592,2.4419515132904053,0.07492078840732574,0.5970768332481384,1.0333082675933838,-3.8762295246124268,0.03167025372385979,-0.02277776598930359],[-0.7468031048774719,-2.0277504920959473,-0.16170376539230347,-0.6121823191642761,-4.618002891540527,-0.639814019203186,3.0630931854248047,2.076810598373413,-1.9457800388336182,0.07100722193717957,-0.09973961114883423],[-1.2018849849700928,-3.5428807735443115,-0.16938351094722748,-2.74055814743042,1.8340166807174683,-2.7565791606903076,0.31140491366386414,0.9889155626296997,1.8745179176330566,-0.055004820227622986,0.016497574746608734]],"biases":[0.11355010420084,0.008926699869334698,0.5271542072296143]},{"weights":[[0.1818331778049469,6.806617259979248,0.07848931849002838],[3.4239461421966553,-3.5063838958740234,3.7280290126800537],[1.8406490087509155,-2.155651807785034,-6.278458595275879],[-5.676713466644287,-2.1042628288269043,3.2345736026763916]],"biases":[-3.6924211978912354,-5.16424036026001,1.6161737442016602,-0.08440329879522324]}],"inputLookup":null,"inputLookupLength":0,"outputLookup":{"greetings":0,"questiongreeting":1,"farwell":2,"test":3},"outputLookupLength":4,"options":{"inputSize":0,"outputSize":0,"binaryThresh":0.5,"hiddenLayers":[3]},"trainOpts":{"activation":"sigmoid","iterations":20000,"errorThresh":0.005,"log":true,"logPeriod":10,"leakyReluAlpha":0.01,"learningRate":0.3,"momentum":0.1,"callbackPeriod":10,"timeout":"Infinity","beta1":0.9,"beta2":0.999,"epsilon":1e-8}}